digraph Tree {
node [shape=box] ;
0 [label="X[6] <= 0.5\nentropy = 0.9268\nsamples = 687\nvalue = [452, 235]"] ;
1 [label="X[7] <= 0.5\nentropy = 0.9796\nsamples = 512\nvalue = [299, 213]"] ;
0 -> 1 [labeldistance=2.5, labelangle=45, headlabel="True"] ;
2 [label="X[0] <= 67.0\nentropy = 0.9999\nsamples = 355\nvalue = [180, 175]"] ;
1 -> 2 ;
3 [label="X[21] <= 0.5\nentropy = 0.9997\nsamples = 341\nvalue = [167, 174]"] ;
2 -> 3 ;
4 [label="X[13] <= 0.5\nentropy = 0.9991\nsamples = 336\nvalue = [162, 174]"] ;
3 -> 4 ;
5 [label="entropy = 0.9999\nsamples = 323\nvalue = [160, 163]"] ;
4 -> 5 ;
6 [label="entropy = 0.6194\nsamples = 13\nvalue = [2, 11]"] ;
4 -> 6 ;
7 [label="entropy = 0.0\nsamples = 5\nvalue = [5, 0]"] ;
3 -> 7 ;
8 [label="X[28] <= 0.5\nentropy = 0.3712\nsamples = 14\nvalue = [13, 1]"] ;
2 -> 8 ;
9 [label="entropy = 0.0\nsamples = 12\nvalue = [12, 0]"] ;
8 -> 9 ;
10 [label="X[0] <= 70.5\nentropy = 1.0\nsamples = 2\nvalue = [1, 1]"] ;
8 -> 10 ;
11 [label="entropy = 0.0\nsamples = 1\nvalue = [1, 0]"] ;
10 -> 11 ;
12 [label="entropy = 0.0\nsamples = 1\nvalue = [0, 1]"] ;
10 -> 12 ;
13 [label="X[24] <= 0.5\nentropy = 0.7984\nsamples = 157\nvalue = [119, 38]"] ;
1 -> 13 ;
14 [label="X[28] <= 0.5\nentropy = 0.8435\nsamples = 140\nvalue = [102, 38]"] ;
13 -> 14 ;
15 [label="X[0] <= 59.5\nentropy = 0.8018\nsamples = 127\nvalue = [96, 31]"] ;
14 -> 15 ;
16 [label="entropy = 0.8442\nsamples = 114\nvalue = [83, 31]"] ;
15 -> 16 ;
17 [label="entropy = 0.0\nsamples = 13\nvalue = [13, 0]"] ;
15 -> 17 ;
18 [label="X[2] <= 0.5\nentropy = 0.9957\nsamples = 13\nvalue = [6, 7]"] ;
14 -> 18 ;
19 [label="entropy = 0.9183\nsamples = 9\nvalue = [3, 6]"] ;
18 -> 19 ;
20 [label="entropy = 0.8113\nsamples = 4\nvalue = [3, 1]"] ;
18 -> 20 ;
21 [label="entropy = 0.0\nsamples = 17\nvalue = [17, 0]"] ;
13 -> 21 ;
22 [label="X[0] <= 52.0\nentropy = 0.5456\nsamples = 175\nvalue = [153, 22]"] ;
0 -> 22 [labeldistance=2.5, labelangle=-45, headlabel="False"] ;
23 [label="X[0] <= 32.0\nentropy = 0.475\nsamples = 157\nvalue = [141, 16]"] ;
22 -> 23 ;
24 [label="X[23] <= 0.5\nentropy = 0.5726\nsamples = 118\nvalue = [102, 16]"] ;
23 -> 24 ;
25 [label="X[2] <= 0.5\nentropy = 0.3943\nsamples = 90\nvalue = [83, 7]"] ;
24 -> 25 ;
26 [label="entropy = 0.7732\nsamples = 22\nvalue = [17, 5]"] ;
25 -> 26 ;
27 [label="entropy = 0.1914\nsamples = 68\nvalue = [66, 2]"] ;
25 -> 27 ;
28 [label="X[1] <= 0.5\nentropy = 0.9059\nsamples = 28\nvalue = [19, 9]"] ;
24 -> 28 ;
29 [label="entropy = 0.0\nsamples = 4\nvalue = [4, 0]"] ;
28 -> 29 ;
30 [label="entropy = 0.9544\nsamples = 24\nvalue = [15, 9]"] ;
28 -> 30 ;
31 [label="entropy = 0.0\nsamples = 39\nvalue = [39, 0]"] ;
23 -> 31 ;
32 [label="X[14] <= 0.5\nentropy = 0.9183\nsamples = 18\nvalue = [12, 6]"] ;
22 -> 32 ;
33 [label="X[10] <= 0.5\nentropy = 0.874\nsamples = 17\nvalue = [12, 5]"] ;
32 -> 33 ;
34 [label="X[22] <= 0.5\nentropy = 0.8113\nsamples = 16\nvalue = [12, 4]"] ;
33 -> 34 ;
35 [label="entropy = 0.6194\nsamples = 13\nvalue = [11, 2]"] ;
34 -> 35 ;
36 [label="entropy = 0.9183\nsamples = 3\nvalue = [1, 2]"] ;
34 -> 36 ;
37 [label="entropy = 0.0\nsamples = 1\nvalue = [0, 1]"] ;
33 -> 37 ;
38 [label="entropy = 0.0\nsamples = 1\nvalue = [0, 1]"] ;
32 -> 38 ;
}