digraph Tree {
node [shape=box] ;
0 [label="X[6] <= 0.5\nentropy = 0.9046\nsamples = 687\nvalue = [467, 220]"] ;
1 [label="X[7] <= 0.5\nentropy = 0.9724\nsamples = 487\nvalue = [291, 196]"] ;
0 -> 1 [labeldistance=2.5, labelangle=45, headlabel="True"] ;
2 [label="X[23] <= 0.5\nentropy = 0.9999\nsamples = 332\nvalue = [168, 164]"] ;
1 -> 2 ;
3 [label="X[21] <= 0.5\nentropy = 0.989\nsamples = 235\nvalue = [103, 132]"] ;
2 -> 3 ;
4 [label="X[13] <= 0.5\nentropy = 0.9852\nsamples = 231\nvalue = [99, 132]"] ;
3 -> 4 ;
5 [label="entropy = 0.9901\nsamples = 222\nvalue = [98, 124]"] ;
4 -> 5 ;
6 [label="entropy = 0.5033\nsamples = 9\nvalue = [1, 8]"] ;
4 -> 6 ;
7 [label="entropy = 0.0\nsamples = 4\nvalue = [4, 0]"] ;
3 -> 7 ;
8 [label="X[0] <= 58.0\nentropy = 0.9148\nsamples = 97\nvalue = [65, 32]"] ;
2 -> 8 ;
9 [label="X[0] <= 0.5\nentropy = 0.9555\nsamples = 85\nvalue = [53, 32]"] ;
8 -> 9 ;
10 [label="entropy = 0.0\nsamples = 2\nvalue = [0, 2]"] ;
9 -> 10 ;
11 [label="entropy = 0.9439\nsamples = 83\nvalue = [53, 30]"] ;
9 -> 11 ;
12 [label="entropy = 0.0\nsamples = 12\nvalue = [12, 0]"] ;
8 -> 12 ;
13 [label="X[24] <= 0.5\nentropy = 0.7346\nsamples = 155\nvalue = [123, 32]"] ;
1 -> 13 ;
14 [label="X[0] <= 0.5\nentropy = 0.7842\nsamples = 137\nvalue = [105, 32]"] ;
13 -> 14 ;
15 [label="X[22] <= 0.5\nentropy = 0.994\nsamples = 11\nvalue = [5, 6]"] ;
14 -> 15 ;
16 [label="entropy = 0.8631\nsamples = 7\nvalue = [5, 2]"] ;
15 -> 16 ;
17 [label="entropy = 0.0\nsamples = 4\nvalue = [0, 4]"] ;
15 -> 17 ;
18 [label="X[0] <= 10.5\nentropy = 0.7344\nsamples = 126\nvalue = [100, 26]"] ;
14 -> 18 ;
19 [label="entropy = 0.2164\nsamples = 29\nvalue = [28, 1]"] ;
18 -> 19 ;
20 [label="entropy = 0.8233\nsamples = 97\nvalue = [72, 25]"] ;
18 -> 20 ;
21 [label="entropy = 0.0\nsamples = 18\nvalue = [18, 0]"] ;
13 -> 21 ;
22 [label="X[0] <= 55.5\nentropy = 0.5294\nsamples = 200\nvalue = [176, 24]"] ;
0 -> 22 [labeldistance=2.5, labelangle=-45, headlabel="False"] ;
23 [label="X[0] <= 30.5\nentropy = 0.469\nsamples = 180\nvalue = [162, 18]"] ;
22 -> 23 ;
24 [label="X[23] <= 0.5\nentropy = 0.5639\nsamples = 136\nvalue = [118, 18]"] ;
23 -> 24 ;
25 [label="X[14] <= 0.5\nentropy = 0.4479\nsamples = 107\nvalue = [97, 10]"] ;
24 -> 25 ;
26 [label="entropy = 0.3966\nsamples = 102\nvalue = [94, 8]"] ;
25 -> 26 ;
27 [label="entropy = 0.971\nsamples = 5\nvalue = [3, 2]"] ;
25 -> 27 ;
28 [label="X[3] <= 0.5\nentropy = 0.8498\nsamples = 29\nvalue = [21, 8]"] ;
24 -> 28 ;
29 [label="entropy = 0.9044\nsamples = 25\nvalue = [17, 8]"] ;
28 -> 29 ;
30 [label="entropy = 0.0\nsamples = 4\nvalue = [4, 0]"] ;
28 -> 30 ;
31 [label="entropy = 0.0\nsamples = 44\nvalue = [44, 0]"] ;
23 -> 31 ;
32 [label="X[0] <= 58.0\nentropy = 0.8813\nsamples = 20\nvalue = [14, 6]"] ;
22 -> 32 ;
33 [label="X[4] <= 0.5\nentropy = 0.8113\nsamples = 4\nvalue = [1, 3]"] ;
32 -> 33 ;
34 [label="entropy = 0.0\nsamples = 1\nvalue = [1, 0]"] ;
33 -> 34 ;
35 [label="entropy = 0.0\nsamples = 3\nvalue = [0, 3]"] ;
33 -> 35 ;
36 [label="X[4] <= 0.5\nentropy = 0.6962\nsamples = 16\nvalue = [13, 3]"] ;
32 -> 36 ;
37 [label="X[2] <= 0.5\nentropy = 0.9183\nsamples = 3\nvalue = [1, 2]"] ;
36 -> 37 ;
38 [label="entropy = 0.0\nsamples = 2\nvalue = [0, 2]"] ;
37 -> 38 ;
39 [label="entropy = 0.0\nsamples = 1\nvalue = [1, 0]"] ;
37 -> 39 ;
40 [label="X[10] <= 0.5\nentropy = 0.3912\nsamples = 13\nvalue = [12, 1]"] ;
36 -> 40 ;
41 [label="entropy = 0.0\nsamples = 12\nvalue = [12, 0]"] ;
40 -> 41 ;
42 [label="entropy = 0.0\nsamples = 1\nvalue = [0, 1]"] ;
40 -> 42 ;
}